digraph Tree {
node [shape=box, style="filled, rounded", color="black", fontname="helvetica"] ;
edge [fontname="helvetica"] ;
0 [label="Challenge <= 8.5\nsquared_error = 8.46\nsamples = 243\nvalue = 11.59", fillcolor="#f5ceb2"] ;
1 [label="celestial <= 0.5\nsquared_error = 5.57\nsamples = 198\nvalue = 10.91", fillcolor="#f6d2b8"] ;
0 -> 1 [labeldistance=2.5, labelangle=45, headlabel="True"] ;
2 [label="plant <= 0.5\nsquared_error = 5.01\nsamples = 196\nvalue = 10.83", fillcolor="#f6d2b9"] ;
1 -> 2 ;
3 [label="ooze <= 0.5\nsquared_error = 4.45\nsamples = 190\nvalue = 10.94", fillcolor="#f6d2b8"] ;
2 -> 3 ;
4 [label="construct <= 0.5\nsquared_error = 4.13\nsamples = 187\nvalue = 11.02", fillcolor="#f6d1b7"] ;
3 -> 4 ;
5 [label="Challenge <= 0.75\nsquared_error = 3.73\nsamples = 177\nvalue = 11.15", fillcolor="#f5d0b6"] ;
4 -> 5 ;
6 [label="Underdark <= 0.5\nsquared_error = 4.0\nsamples = 75\nvalue = 10.57", fillcolor="#f6d4bb"] ;
5 -> 6 ;
7 [label="undead <= 0.5\nsquared_error = 3.14\nsamples = 53\nvalue = 11.09", fillcolor="#f5d1b6"] ;
6 -> 7 ;
8 [label="chaotic evil <= 0.5\nsquared_error = 2.88\nsamples = 51\nvalue = 11.22", fillcolor="#f5d0b5"] ;
7 -> 8 ;
9 [label="unaligned <= 0.5\nsquared_error = 2.74\nsamples = 49\nvalue = 11.31", fillcolor="#f5cfb4"] ;
8 -> 9 ;
10 [label="Challenge <= 0.38\nsquared_error = 1.47\nsamples = 15\nvalue = 12.0", fillcolor="#f4cbae"] ;
9 -> 10 ;
11 [label="Challenge <= 0.19\nsquared_error = 1.36\nsamples = 9\nvalue = 12.44", fillcolor="#f4c9aa"] ;
10 -> 11 ;
12 [label="any alignment <= 0.5\nsquared_error = 1.69\nsamples = 4\nvalue = 11.75", fillcolor="#f5cdb0"] ;
11 -> 12 ;
13 [label="squared_error = 0.0\nsamples = 2\nvalue = 11.0", fillcolor="#f6d1b7"] ;
12 -> 13 ;
14 [label="Forest <= 0.5\nsquared_error = 2.25\nsamples = 2\nvalue = 12.5", fillcolor="#f4c9aa"] ;
12 -> 14 ;
15 [label="squared_error = 0.0\nsamples = 1\nvalue = 14.0", fillcolor="#f2c09c"] ;
14 -> 15 ;
16 [label="squared_error = 0.0\nsamples = 1\nvalue = 11.0", fillcolor="#f6d1b7"] ;
14 -> 16 ;
17 [label="Forest <= 0.5\nsquared_error = 0.4\nsamples = 5\nvalue = 13.0", fillcolor="#f3c6a5"] ;
11 -> 17 ;
18 [label="squared_error = 0.0\nsamples = 1\nvalue = 14.0", fillcolor="#f2c09c"] ;
17 -> 18 ;
19 [label="Urban <= 0.5\nsquared_error = 0.19\nsamples = 4\nvalue = 12.75", fillcolor="#f3c7a7"] ;
17 -> 19 ;
20 [label="squared_error = 0.0\nsamples = 3\nvalue = 13.0", fillcolor="#f3c6a5"] ;
19 -> 20 ;
21 [label="squared_error = 0.0\nsamples = 1\nvalue = 12.0", fillcolor="#f4cbae"] ;
19 -> 21 ;
22 [label="Underwater <= 0.5\nsquared_error = 0.89\nsamples = 6\nvalue = 11.33", fillcolor="#f5cfb4"] ;
10 -> 22 ;
23 [label="Urban <= 0.5\nsquared_error = 0.4\nsamples = 5\nvalue = 11.0", fillcolor="#f6d1b7"] ;
22 -> 23 ;
24 [label="Swamp <= 0.5\nsquared_error = 0.19\nsamples = 4\nvalue = 11.25", fillcolor="#f5d0b5"] ;
23 -> 24 ;
25 [label="squared_error = 0.0\nsamples = 3\nvalue = 11.0", fillcolor="#f6d1b7"] ;
24 -> 25 ;
26 [label="squared_error = 0.0\nsamples = 1\nvalue = 12.0", fillcolor="#f4cbae"] ;
24 -> 26 ;
27 [label="squared_error = 0.0\nsamples = 1\nvalue = 10.0", fillcolor="#f7d7c0"] ;
23 -> 27 ;
28 [label="squared_error = 0.0\nsamples = 1\nvalue = 13.0", fillcolor="#f3c6a5"] ;
22 -> 28 ;
29 [label="Challenge <= 0.38\nsquared_error = 3.0\nsamples = 34\nvalue = 11.0", fillcolor="#f6d1b7"] ;
9 -> 29 ;
30 [label="Underwater <= 0.5\nsquared_error = 3.2\nsamples = 29\nvalue = 10.79", fillcolor="#f6d2b9"] ;
29 -> 30 ;
31 [label="size_ordinal <= 3.5\nsquared_error = 2.78\nsamples = 28\nvalue = 10.93", fillcolor="#f6d2b8"] ;
30 -> 31 ;
32 [label="Hill <= 0.5\nsquared_error = 2.67\nsamples = 25\nvalue = 11.12", fillcolor="#f5d0b6"] ;
31 -> 32 ;
33 [label="Coastal <= 0.5\nsquared_error = 3.29\nsamples = 13\nvalue = 10.69", fillcolor="#f6d3ba"] ;
32 -> 33 ;
34 [label="Swamp <= 0.5\nsquared_error = 2.91\nsamples = 12\nvalue = 10.92", fillcolor="#f6d2b8"] ;
33 -> 34 ;
35 [label="NA <= 0.5\nsquared_error = 3.51\nsamples = 9\nvalue = 11.22", fillcolor="#f5d0b5"] ;
34 -> 35 ;
36 [label="Urban <= 0.5\nsquared_error = 0.19\nsamples = 4\nvalue = 11.75", fillcolor="#f5cdb0"] ;
35 -> 36 ;
37 [label="squared_error = 0.0\nsamples = 3\nvalue = 12.0", fillcolor="#f4cbae"] ;
36 -> 37 ;
38 [label="squared_error = 0.0\nsamples = 1\nvalue = 11.0", fillcolor="#f6d1b7"] ;
36 -> 38 ;
39 [label="squared_error = 5.76\nsamples = 5\nvalue = 10.8", fillcolor="#f6d2b9"] ;
35 -> 39 ;
40 [label="squared_error = 0.0\nsamples = 3\nvalue = 10.0", fillcolor="#f7d7c0"] ;
34 -> 40 ;
41 [label="squared_error = 0.0\nsamples = 1\nvalue = 8.0", fillcolor="#f9e2d2"] ;
33 -> 41 ;
42 [label="Coastal <= 0.5\nsquared_error = 1.58\nsamples = 12\nvalue = 11.58", fillcolor="#f5ceb2"] ;
32 -> 42 ;
43 [label="Mountain <= 0.5\nsquared_error = 1.21\nsamples = 10\nvalue = 11.3", fillcolor="#f5cfb4"] ;
42 -> 43 ;
44 [label="Challenge <= 0.06\nsquared_error = 1.14\nsamples = 9\nvalue = 11.44", fillcolor="#f5cfb3"] ;
43 -> 44 ;
45 [label="squared_error = 0.0\nsamples = 3\nvalue = 12.0", fillcolor="#f4cbae"] ;
44 -> 45 ;
46 [label="Forest <= 0.5\nsquared_error = 1.47\nsamples = 6\nvalue = 11.17", fillcolor="#f5d0b6"] ;
44 -> 46 ;
47 [label="squared_error = 0.0\nsamples = 1\nvalue = 10.0", fillcolor="#f7d7c0"] ;
46 -> 47 ;
48 [label="Challenge <= 0.19\nsquared_error = 1.44\nsamples = 5\nvalue = 11.4", fillcolor="#f5cfb3"] ;
46 -> 48 ;
49 [label="squared_error = 0.0\nsamples = 2\nvalue = 12.0", fillcolor="#f4cbae"] ;
48 -> 49 ;
50 [label="beast <= 0.5\nsquared_error = 2.0\nsamples = 3\nvalue = 11.0", fillcolor="#f6d1b7"] ;
48 -> 50 ;
51 [label="squared_error = 0.0\nsamples = 1\nvalue = 12.0", fillcolor="#f4cbae"] ;
50 -> 51 ;
52 [label="squared_error = 2.25\nsamples = 2\nvalue = 10.5", fillcolor="#f6d4bc"] ;
50 -> 52 ;
53 [label="squared_error = 0.0\nsamples = 1\nvalue = 10.0", fillcolor="#f7d7c0"] ;
43 -> 53 ;
54 [label="size_ordinal <= 2.5\nsquared_error = 1.0\nsamples = 2\nvalue = 13.0", fillcolor="#f3c6a5"] ;
42 -> 54 ;
55 [label="squared_error = 0.0\nsamples = 1\nvalue = 14.0", fillcolor="#f2c09c"] ;
54 -> 55 ;
56 [label="squared_error = 0.0\nsamples = 1\nvalue = 12.0", fillcolor="#f4cbae"] ;
54 -> 56 ;
57 [label="Grassland <= 0.5\nsquared_error = 0.89\nsamples = 3\nvalue = 9.33", fillcolor="#f8dbc6"] ;
31 -> 57 ;
58 [label="squared_error = 0.0\nsamples = 1\nvalue = 8.0", fillcolor="#f9e2d2"] ;
57 -> 58 ;
59 [label="squared_error = 0.0\nsamples = 2\nvalue = 10.0", fillcolor="#f7d7c0"] ;
57 -> 59 ;
60 [label="squared_error = 0.0\nsamples = 1\nvalue = 7.0", fillcolor="#fae8db"] ;
30 -> 60 ;
61 [label="Grassland <= 0.5\nsquared_error = 0.16\nsamples = 5\nvalue = 12.2", fillcolor="#f4caac"] ;
29 -> 61 ;
62 [label="squared_error = 0.0\nsamples = 4\nvalue = 12.0", fillcolor="#f4cbae"] ;
61 -> 62 ;
63 [label="squared_error = 0.0\nsamples = 1\nvalue = 13.0", fillcolor="#f3c6a5"] ;
61 -> 63 ;
64 [label="fiend <= 0.5\nsquared_error = 1.0\nsamples = 2\nvalue = 9.0", fillcolor="#f8ddc9"] ;
8 -> 64 ;
65 [label="squared_error = 0.0\nsamples = 1\nvalue = 10.0", fillcolor="#f7d7c0"] ;
64 -> 65 ;
66 [label="squared_error = 0.0\nsamples = 1\nvalue = 8.0", fillcolor="#f9e2d2"] ;
64 -> 66 ;
67 [label="squared_error = 0.0\nsamples = 2\nvalue = 8.0", fillcolor="#f9e2d2"] ;
7 -> 67 ;
68 [label="Urban <= 0.5\nsquared_error = 3.85\nsamples = 22\nvalue = 9.32", fillcolor="#f8dbc6"] ;
6 -> 68 ;
69 [label="size_ordinal <= 2.5\nsquared_error = 3.21\nsamples = 10\nvalue = 10.3", fillcolor="#f6d5bd"] ;
68 -> 69 ;
70 [label="Challenge <= 0.38\nsquared_error = 1.6\nsamples = 5\nvalue = 9.0", fillcolor="#f8ddc9"] ;
69 -> 70 ;
71 [label="Forest <= 0.5\nsquared_error = 0.25\nsamples = 2\nvalue = 7.5", fillcolor="#fae5d6"] ;
70 -> 71 ;
72 [label="squared_error = 0.0\nsamples = 1\nvalue = 7.0", fillcolor="#fae8db"] ;
71 -> 72 ;
73 [label="squared_error = 0.0\nsamples = 1\nvalue = 8.0", fillcolor="#f9e2d2"] ;
71 -> 73 ;
74 [label="squared_error = 0.0\nsamples = 3\nvalue = 10.0", fillcolor="#f7d7c0"] ;
70 -> 74 ;
75 [label="Challenge <= 0.38\nsquared_error = 1.44\nsamples = 5\nvalue = 11.6", fillcolor="#f5ceb2"] ;
69 -> 75 ;
76 [label="Desert <= 0.5\nsquared_error = 0.25\nsamples = 2\nvalue = 10.5", fillcolor="#f6d4bc"] ;
75 -> 76 ;
77 [label="squared_error = 0.0\nsamples = 1\nvalue = 11.0", fillcolor="#f6d1b7"] ;
76 -> 77 ;
78 [label="squared_error = 0.0\nsamples = 1\nvalue = 10.0", fillcolor="#f7d7c0"] ;
76 -> 78 ;
79 [label="chaotic evil <= 0.5\nsquared_error = 0.89\nsamples = 3\nvalue = 12.33", fillcolor="#f4caab"] ;
75 -> 79 ;
80 [label="squared_error = 0.0\nsamples = 2\nvalue = 13.0", fillcolor="#f3c6a5"] ;
79 -> 80 ;
81 [label="squared_error = 0.0\nsamples = 1\nvalue = 11.0", fillcolor="#f6d1b7"] ;
79 -> 81 ;
82 [label="Desert <= 0.5\nsquared_error = 2.92\nsamples = 12\nvalue = 8.5", fillcolor="#f8e0ce"] ;
68 -> 82 ;
83 [label="swarm <= 0.5\nsquared_error = 2.56\nsamples = 5\nvalue = 9.8", fillcolor="#f7d8c2"] ;
82 -> 83 ;
84 [label="Swamp <= 0.5\nsquared_error = 1.69\nsamples = 4\nvalue = 9.25", fillcolor="#f8dbc7"] ;
83 -> 84 ;
85 [label="undead <= 0.5\nsquared_error = 2.25\nsamples = 2\nvalue = 8.5", fillcolor="#f8e0ce"] ;
84 -> 85 ;
86 [label="squared_error = 0.0\nsamples = 1\nvalue = 7.0", fillcolor="#fae8db"] ;
85 -> 86 ;
87 [label="squared_error = 0.0\nsamples = 1\nvalue = 10.0", fillcolor="#f7d7c0"] ;
85 -> 87 ;
88 [label="squared_error = 0.0\nsamples = 2\nvalue = 10.0", fillcolor="#f7d7c0"] ;
84 -> 88 ;
89 [label="squared_error = 0.0\nsamples = 1\nvalue = 12.0", fillcolor="#f4cbae"] ;
83 -> 89 ;
90 [label="Hill <= 0.5\nsquared_error = 1.1\nsamples = 7\nvalue = 7.57", fillcolor="#fae5d6"] ;
82 -> 90 ;
91 [label="squared_error = 0.0\nsamples = 1\nvalue = 10.0", fillcolor="#f7d7c0"] ;
90 -> 91 ;
92 [label="size_ordinal <= 1.5\nsquared_error = 0.14\nsamples = 6\nvalue = 7.17", fillcolor="#fae7da"] ;
90 -> 92 ;
93 [label="squared_error = 0.0\nsamples = 1\nvalue = 8.0", fillcolor="#f9e2d2"] ;
92 -> 93 ;
94 [label="squared_error = 0.0\nsamples = 5\nvalue = 7.0", fillcolor="#fae8db"] ;
92 -> 94 ;
95 [label="giant <= 0.5\nsquared_error = 3.11\nsamples = 102\nvalue = 11.57", fillcolor="#f5ceb2"] ;
5 -> 95 ;
96 [label="undead <= 0.5\nsquared_error = 2.82\nsamples = 98\nvalue = 11.66", fillcolor="#f5cdb1"] ;
95 -> 96 ;
97 [label="unaligned <= 0.5\nsquared_error = 2.23\nsamples = 87\nvalue = 11.8", fillcolor="#f5cdb0"] ;
96 -> 97 ;
98 [label="Underdark <= 0.5\nsquared_error = 2.38\nsamples = 54\nvalue = 12.09", fillcolor="#f4cbad"] ;
97 -> 98 ;
99 [label="chaotic evil <= 0.5\nsquared_error = 1.73\nsamples = 42\nvalue = 11.81", fillcolor="#f5cdb0"] ;
98 -> 99 ;
100 [label="neutral <= 0.5\nsquared_error = 1.8\nsamples = 31\nvalue = 12.06", fillcolor="#f4cbad"] ;
99 -> 100 ;
101 [label="NA <= 0.5\nsquared_error = 1.61\nsamples = 29\nvalue = 12.21", fillcolor="#f4caac"] ;
100 -> 101 ;
102 [label="any non-lawful alignment <= 0.5\nsquared_error = 1.4\nsamples = 19\nvalue = 12.58", fillcolor="#f4c8a9"] ;
101 -> 102 ;
103 [label="Challenge <= 2.5\nsquared_error = 1.33\nsamples = 18\nvalue = 12.67", fillcolor="#f4c8a8"] ;
102 -> 103 ;
104 [label="any alignment <= 0.5\nsquared_error = 1.61\nsamples = 8\nvalue = 13.12", fillcolor="#f3c5a4"] ;
103 -> 104 ;
105 [label="neutral good <= 0.5\nsquared_error = 0.49\nsamples = 7\nvalue = 12.71", fillcolor="#f4c7a8"] ;
104 -> 105 ;
106 [label="humanoid <= 0.5\nsquared_error = 0.25\nsamples = 6\nvalue = 12.5", fillcolor="#f4c9aa"] ;
105 -> 106 ;
107 [label="Challenge <= 1.5\nsquared_error = 0.19\nsamples = 4\nvalue = 12.25", fillcolor="#f4caac"] ;
106 -> 107 ;
108 [label="monstrosity <= 0.5\nsquared_error = 0.25\nsamples = 2\nvalue = 12.5", fillcolor="#f4c9aa"] ;
107 -> 108 ;
109 [label="squared_error = 0.0\nsamples = 1\nvalue = 12.0", fillcolor="#f4cbae"] ;
108 -> 109 ;
110 [label="squared_error = 0.0\nsamples = 1\nvalue = 13.0", fillcolor="#f3c6a5"] ;
108 -> 110 ;
111 [label="squared_error = 0.0\nsamples = 2\nvalue = 12.0", fillcolor="#f4cbae"] ;
107 -> 111 ;
112 [label="squared_error = 0.0\nsamples = 2\nvalue = 13.0", fillcolor="#f3c6a5"] ;
106 -> 112 ;
113 [label="squared_error = 0.0\nsamples = 1\nvalue = 14.0", fillcolor="#f2c09c"] ;
105 -> 113 ;
114 [label="squared_error = 0.0\nsamples = 1\nvalue = 16.0", fillcolor="#f0b58a"] ;
104 -> 114 ;
115 [label="humanoid <= 0.5\nsquared_error = 0.81\nsamples = 10\nvalue = 12.3", fillcolor="#f4caab"] ;
103 -> 115 ;
116 [label="fey <= 0.5\nsquared_error = 0.47\nsamples = 6\nvalue = 12.83", fillcolor="#f3c7a6"] ;
115 -> 116 ;
117 [label="dragon <= 0.5\nsquared_error = 0.24\nsamples = 5\nvalue = 12.6", fillcolor="#f4c8a9"] ;
116 -> 117 ;
118 [label="squared_error = 0.0\nsamples = 2\nvalue = 12.0", fillcolor="#f4cbae"] ;
117 -> 118 ;
119 [label="squared_error = 0.0\nsamples = 3\nvalue = 13.0", fillcolor="#f3c6a5"] ;
117 -> 119 ;
120 [label="squared_error = 0.0\nsamples = 1\nvalue = 14.0", fillcolor="#f2c09c"] ;
116 -> 120 ;
121 [label="Challenge <= 4.5\nsquared_error = 0.25\nsamples = 4\nvalue = 11.5", fillcolor="#f5ceb2"] ;
115 -> 121 ;
122 [label="squared_error = 0.0\nsamples = 2\nvalue = 11.0", fillcolor="#f6d1b7"] ;
121 -> 122 ;
123 [label="squared_error = 0.0\nsamples = 2\nvalue = 12.0", fillcolor="#f4cbae"] ;
121 -> 123 ;
124 [label="squared_error = 0.0\nsamples = 1\nvalue = 11.0", fillcolor="#f6d1b7"] ;
102 -> 124 ;
125 [label="fiend <= 0.5\nsquared_error = 1.25\nsamples = 10\nvalue = 11.5", fillcolor="#f5ceb2"] ;
101 -> 125 ;
126 [label="lawful neutral <= 0.5\nsquared_error = 0.61\nsamples = 8\nvalue = 11.12", fillcolor="#f5d0b6"] ;
125 -> 126 ;
127 [label="neutral evil <= 0.5\nsquared_error = 0.12\nsamples = 7\nvalue = 10.86", fillcolor="#f6d2b8"] ;
126 -> 127 ;
128 [label="squared_error = 0.0\nsamples = 6\nvalue = 11.0", fillcolor="#f6d1b7"] ;
127 -> 128 ;
129 [label="squared_error = 0.0\nsamples = 1\nvalue = 10.0", fillcolor="#f7d7c0"] ;
127 -> 129 ;
130 [label="squared_error = 0.0\nsamples = 1\nvalue = 13.0", fillcolor="#f3c6a5"] ;
126 -> 130 ;
131 [label="Challenge <= 6.5\nsquared_error = 1.0\nsamples = 2\nvalue = 13.0", fillcolor="#f3c6a5"] ;
125 -> 131 ;
132 [label="squared_error = 0.0\nsamples = 1\nvalue = 14.0", fillcolor="#f2c09c"] ;
131 -> 132 ;
133 [label="squared_error = 0.0\nsamples = 1\nvalue = 12.0", fillcolor="#f4cbae"] ;
131 -> 133 ;
134 [label="squared_error = 0.0\nsamples = 2\nvalue = 10.0", fillcolor="#f7d7c0"] ;
100 -> 134 ;
135 [label="Challenge <= 2.5\nsquared_error = 0.81\nsamples = 11\nvalue = 11.09", fillcolor="#f5d1b6"] ;
99 -> 135 ;
136 [label="fey <= 0.5\nsquared_error = 0.64\nsamples = 5\nvalue = 10.6", fillcolor="#f6d3bb"] ;
135 -> 136 ;
137 [label="dragon <= 0.5\nsquared_error = 0.19\nsamples = 4\nvalue = 10.25", fillcolor="#f6d5be"] ;
136 -> 137 ;
138 [label="squared_error = 0.0\nsamples = 2\nvalue = 10.0", fillcolor="#f7d7c0"] ;
137 -> 138 ;
139 [label="squared_error = 0.25\nsamples = 2\nvalue = 10.5", fillcolor="#f6d4bc"] ;
137 -> 139 ;
140 [label="squared_error = 0.0\nsamples = 1\nvalue = 12.0", fillcolor="#f4cbae"] ;
136 -> 140 ;
141 [label="fiend <= 0.5\nsquared_error = 0.58\nsamples = 6\nvalue = 11.5", fillcolor="#f5ceb2"] ;
135 -> 141 ;
142 [label="monstrosity <= 0.5\nsquared_error = 0.16\nsamples = 5\nvalue = 11.2", fillcolor="#f5d0b5"] ;
141 -> 142 ;
143 [label="squared_error = 0.0\nsamples = 4\nvalue = 11.0", fillcolor="#f6d1b7"] ;
142 -> 143 ;
144 [label="squared_error = 0.0\nsamples = 1\nvalue = 12.0", fillcolor="#f4cbae"] ;
142 -> 144 ;
145 [label="squared_error = 0.0\nsamples = 1\nvalue = 13.0", fillcolor="#f3c6a5"] ;
141 -> 145 ;
146 [label="neutral <= 0.5\nsquared_error = 3.41\nsamples = 12\nvalue = 13.08", fillcolor="#f3c5a4"] ;
98 -> 146 ;
147 [label="monstrosity <= 0.5\nsquared_error = 1.84\nsamples = 7\nvalue = 14.14", fillcolor="#f2bf9b"] ;
146 -> 147 ;
148 [label="size_ordinal <= 3.5\nsquared_error = 0.67\nsamples = 3\nvalue = 13.0", fillcolor="#f3c6a5"] ;
147 -> 148 ;
149 [label="fiend <= 0.5\nsquared_error = 0.25\nsamples = 2\nvalue = 13.5", fillcolor="#f3c3a0"] ;
148 -> 149 ;
150 [label="squared_error = 0.0\nsamples = 1\nvalue = 14.0", fillcolor="#f2c09c"] ;
149 -> 150 ;
151 [label="squared_error = 0.0\nsamples = 1\nvalue = 13.0", fillcolor="#f3c6a5"] ;
149 -> 151 ;
152 [label="squared_error = 0.0\nsamples = 1\nvalue = 12.0", fillcolor="#f4cbae"] ;
148 -> 152 ;
153 [label="Challenge <= 5.5\nsquared_error = 1.0\nsamples = 4\nvalue = 15.0", fillcolor="#f1ba93"] ;
147 -> 153 ;
154 [label="squared_error = 0.0\nsamples = 2\nvalue = 16.0", fillcolor="#f0b58a"] ;
153 -> 154 ;
155 [label="squared_error = 0.0\nsamples = 2\nvalue = 14.0", fillcolor="#f2c09c"] ;
153 -> 155 ;
156 [label="elemental <= 0.5\nsquared_error = 1.84\nsamples = 5\nvalue = 11.6", fillcolor="#f5ceb2"] ;
146 -> 156 ;
157 [label="Challenge <= 4.0\nsquared_error = 1.5\nsamples = 4\nvalue = 12.0", fillcolor="#f4cbae"] ;
156 -> 157 ;
158 [label="Urban <= 0.5\nsquared_error = 1.56\nsamples = 3\nvalue = 11.67", fillcolor="#f5cdb1"] ;
157 -> 158 ;
159 [label="squared_error = 0.0\nsamples = 1\nvalue = 10.0", fillcolor="#f7d7c0"] ;
158 -> 159 ;
160 [label="Challenge <= 2.5\nsquared_error = 0.25\nsamples = 2\nvalue = 12.5", fillcolor="#f4c9aa"] ;
158 -> 160 ;
161 [label="squared_error = 0.0\nsamples = 1\nvalue = 13.0", fillcolor="#f3c6a5"] ;
160 -> 161 ;
162 [label="squared_error = 0.0\nsamples = 1\nvalue = 12.0", fillcolor="#f4cbae"] ;
160 -> 162 ;
163 [label="squared_error = 0.0\nsamples = 1\nvalue = 13.0", fillcolor="#f3c6a5"] ;
157 -> 163 ;
164 [label="squared_error = 0.0\nsamples = 1\nvalue = 10.0", fillcolor="#f7d7c0"] ;
156 -> 164 ;
165 [label="size_ordinal <= 3.5\nsquared_error = 1.62\nsamples = 33\nvalue = 11.33", fillcolor="#f5cfb4"] ;
97 -> 165 ;
166 [label="Challenge <= 2.5\nsquared_error = 0.89\nsamples = 3\nvalue = 9.33", fillcolor="#f8dbc6"] ;
165 -> 166 ;
167 [label="squared_error = 0.0\nsamples = 2\nvalue = 10.0", fillcolor="#f7d7c0"] ;
166 -> 167 ;
168 [label="squared_error = 0.0\nsamples = 1\nvalue = 8.0", fillcolor="#f9e2d2"] ;
166 -> 168 ;
169 [label="Desert <= 0.5\nsquared_error = 1.25\nsamples = 30\nvalue = 11.53", fillcolor="#f5ceb2"] ;
165 -> 169 ;
170 [label="Forest <= 0.5\nsquared_error = 0.89\nsamples = 24\nvalue = 11.83", fillcolor="#f5ccaf"] ;
169 -> 170 ;
171 [label="Coastal <= 0.5\nsquared_error = 0.75\nsamples = 16\nvalue = 11.5", fillcolor="#f5ceb2"] ;
170 -> 171 ;
172 [label="Underwater <= 0.5\nsquared_error = 0.66\nsamples = 14\nvalue = 11.36", fillcolor="#f5cfb4"] ;
171 -> 172 ;
173 [label="Challenge <= 3.5\nsquared_error = 0.43\nsamples = 11\nvalue = 11.55", fillcolor="#f5ceb2"] ;
172 -> 173 ;
174 [label="squared_error = 0.0\nsamples = 5\nvalue = 12.0", fillcolor="#f4cbae"] ;
173 -> 174 ;
175 [label="Grassland <= 0.5\nsquared_error = 0.47\nsamples = 6\nvalue = 11.17", fillcolor="#f5d0b6"] ;
173 -> 175 ;
176 [label="Arctic <= 0.5\nsquared_error = 0.22\nsamples = 3\nvalue = 11.67", fillcolor="#f5cdb1"] ;
175 -> 176 ;
177 [label="squared_error = 0.0\nsamples = 2\nvalue = 12.0", fillcolor="#f4cbae"] ;
176 -> 177 ;
178 [label="squared_error = 0.0\nsamples = 1\nvalue = 11.0", fillcolor="#f6d1b7"] ;
176 -> 178 ;
179 [label="Hill <= 0.5\nsquared_error = 0.22\nsamples = 3\nvalue = 10.67", fillcolor="#f6d3ba"] ;
175 -> 179 ;
180 [label="squared_error = 0.0\nsamples = 2\nvalue = 11.0", fillcolor="#f6d1b7"] ;
179 -> 180 ;
181 [label="squared_error = 0.0\nsamples = 1\nvalue = 10.0", fillcolor="#f7d7c0"] ;
179 -> 181 ;
182 [label="Challenge <= 2.5\nsquared_error = 0.89\nsamples = 3\nvalue = 10.67", fillcolor="#f6d3ba"] ;
172 -> 182 ;
183 [label="squared_error = 0.0\nsamples = 2\nvalue = 10.0", fillcolor="#f7d7c0"] ;
182 -> 183 ;
184 [label="squared_error = 0.0\nsamples = 1\nvalue = 12.0", fillcolor="#f4cbae"] ;
182 -> 184 ;
185 [label="Grassland <= 0.5\nsquared_error = 0.25\nsamples = 2\nvalue = 12.5", fillcolor="#f4c9aa"] ;
171 -> 185 ;
186 [label="squared_error = 0.0\nsamples = 1\nvalue = 12.0", fillcolor="#f4cbae"] ;
185 -> 186 ;
187 [label="squared_error = 0.0\nsamples = 1\nvalue = 13.0", fillcolor="#f3c6a5"] ;
185 -> 187 ;
188 [label="Mountain <= 0.5\nsquared_error = 0.5\nsamples = 8\nvalue = 12.5", fillcolor="#f4c9aa"] ;
170 -> 188 ;
189 [label="Arctic <= 0.5\nsquared_error = 0.2\nsamples = 7\nvalue = 12.29", fillcolor="#f4caab"] ;
188 -> 189 ;
190 [label="Grassland <= 0.5\nsquared_error = 0.14\nsamples = 6\nvalue = 12.17", fillcolor="#f4caac"] ;
189 -> 190 ;
191 [label="squared_error = 0.0\nsamples = 3\nvalue = 12.0", fillcolor="#f4cbae"] ;
190 -> 191 ;
192 [label="beast <= 0.5\nsquared_error = 0.22\nsamples = 3\nvalue = 12.33", fillcolor="#f4caab"] ;
190 -> 192 ;
193 [label="Challenge <= 3.5\nsquared_error = 0.25\nsamples = 2\nvalue = 12.5", fillcolor="#f4c9aa"] ;
192 -> 193 ;
194 [label="squared_error = 0.0\nsamples = 1\nvalue = 13.0", fillcolor="#f3c6a5"] ;
193 -> 194 ;
195 [label="squared_error = 0.0\nsamples = 1\nvalue = 12.0", fillcolor="#f4cbae"] ;
193 -> 195 ;
196 [label="squared_error = 0.0\nsamples = 1\nvalue = 12.0", fillcolor="#f4cbae"] ;
192 -> 196 ;
197 [label="squared_error = 0.0\nsamples = 1\nvalue = 13.0", fillcolor="#f3c6a5"] ;
189 -> 197 ;
198 [label="squared_error = 0.0\nsamples = 1\nvalue = 14.0", fillcolor="#f2c09c"] ;
188 -> 198 ;
199 [label="Mountain <= 0.5\nsquared_error = 0.89\nsamples = 6\nvalue = 10.33", fillcolor="#f6d5bd"] ;
169 -> 199 ;
200 [label="Underdark <= 0.5\nsquared_error = 0.4\nsamples = 5\nvalue = 10.0", fillcolor="#f7d7c0"] ;
199 -> 200 ;
201 [label="squared_error = 0.0\nsamples = 1\nvalue = 9.0", fillcolor="#f8ddc9"] ;
200 -> 201 ;
202 [label="Challenge <= 1.5\nsquared_error = 0.19\nsamples = 4\nvalue = 10.25", fillcolor="#f6d5be"] ;
200 -> 202 ;
203 [label="Coastal <= 0.5\nsquared_error = 0.25\nsamples = 2\nvalue = 10.5", fillcolor="#f6d4bc"] ;
202 -> 203 ;
204 [label="squared_error = 0.0\nsamples = 1\nvalue = 11.0", fillcolor="#f6d1b7"] ;
203 -> 204 ;
205 [label="squared_error = 0.0\nsamples = 1\nvalue = 10.0", fillcolor="#f7d7c0"] ;
203 -> 205 ;
206 [label="squared_error = 0.0\nsamples = 2\nvalue = 10.0", fillcolor="#f7d7c0"] ;
202 -> 206 ;
207 [label="squared_error = 0.0\nsamples = 1\nvalue = 12.0", fillcolor="#f4cbae"] ;
199 -> 207 ;
208 [label="Forest <= 0.5\nsquared_error = 6.07\nsamples = 11\nvalue = 10.55", fillcolor="#f6d4bb"] ;
96 -> 208 ;
209 [label="size_ordinal <= 3.5\nsquared_error = 3.4\nsamples = 10\nvalue = 10.0", fillcolor="#f7d7c0"] ;
208 -> 209 ;
210 [label="Challenge <= 2.5\nsquared_error = 1.19\nsamples = 8\nvalue = 10.75", fillcolor="#f6d3b9"] ;
209 -> 210 ;
211 [label="squared_error = 0.0\nsamples = 3\nvalue = 10.0", fillcolor="#f7d7c0"] ;
210 -> 211 ;
212 [label="Swamp <= 0.5\nsquared_error = 1.36\nsamples = 5\nvalue = 11.2", fillcolor="#f5d0b5"] ;
210 -> 212 ;
213 [label="any alignment <= 0.5\nsquared_error = 0.69\nsamples = 4\nvalue = 10.75", fillcolor="#f6d3b9"] ;
212 -> 213 ;
214 [label="NA <= 0.5\nsquared_error = 0.22\nsamples = 3\nvalue = 10.33", fillcolor="#f6d5bd"] ;
213 -> 214 ;
215 [label="squared_error = 0.0\nsamples = 2\nvalue = 10.0", fillcolor="#f7d7c0"] ;
214 -> 215 ;
216 [label="squared_error = 0.0\nsamples = 1\nvalue = 11.0", fillcolor="#f6d1b7"] ;
214 -> 216 ;
217 [label="squared_error = 0.0\nsamples = 1\nvalue = 12.0", fillcolor="#f4cbae"] ;
213 -> 217 ;
218 [label="squared_error = 0.0\nsamples = 1\nvalue = 13.0", fillcolor="#f3c6a5"] ;
212 -> 218 ;
219 [label="NA <= 0.5\nsquared_error = 1.0\nsamples = 2\nvalue = 7.0", fillcolor="#fae8db"] ;
209 -> 219 ;
220 [label="squared_error = 0.0\nsamples = 1\nvalue = 8.0", fillcolor="#f9e2d2"] ;
219 -> 220 ;
221 [label="squared_error = 0.0\nsamples = 1\nvalue = 6.0", fillcolor="#fbeee4"] ;
219 -> 221 ;
222 [label="squared_error = 0.0\nsamples = 1\nvalue = 16.0", fillcolor="#f0b58a"] ;
208 -> 222 ;
223 [label="Grassland <= 0.5\nsquared_error = 4.69\nsamples = 4\nvalue = 9.25", fillcolor="#f8dbc7"] ;
95 -> 223 ;
224 [label="Urban <= 0.5\nsquared_error = 1.56\nsamples = 3\nvalue = 10.33", fillcolor="#f6d5bd"] ;
223 -> 224 ;
225 [label="size_ordinal <= 4.5\nsquared_error = 0.25\nsamples = 2\nvalue = 9.5", fillcolor="#f7dac4"] ;
224 -> 225 ;
226 [label="squared_error = 0.0\nsamples = 1\nvalue = 10.0", fillcolor="#f7d7c0"] ;
225 -> 226 ;
227 [label="squared_error = 0.0\nsamples = 1\nvalue = 9.0", fillcolor="#f8ddc9"] ;
225 -> 227 ;
228 [label="squared_error = 0.0\nsamples = 1\nvalue = 12.0", fillcolor="#f4cbae"] ;
224 -> 228 ;
229 [label="squared_error = 0.0\nsamples = 1\nvalue = 6.0", fillcolor="#fbeee4"] ;
223 -> 229 ;
230 [label="unaligned <= 0.5\nsquared_error = 5.96\nsamples = 10\nvalue = 8.8", fillcolor="#f8decb"] ;
4 -> 230 ;
231 [label="squared_error = 0.0\nsamples = 6\nvalue = 10.0", fillcolor="#f7d7c0"] ;
230 -> 231 ;
232 [label="Challenge <= 4.0\nsquared_error = 9.5\nsamples = 4\nvalue = 7.0", fillcolor="#fae8db"] ;
230 -> 232 ;
233 [label="Challenge <= 0.56\nsquared_error = 8.67\nsamples = 3\nvalue = 6.0", fillcolor="#fbeee4"] ;
232 -> 233 ;
234 [label="squared_error = 6.25\nsamples = 2\nvalue = 7.5", fillcolor="#fae5d6"] ;
233 -> 234 ;
235 [label="squared_error = 0.0\nsamples = 1\nvalue = 3.0", fillcolor="#ffffff"] ;
233 -> 235 ;
236 [label="squared_error = 0.0\nsamples = 1\nvalue = 10.0", fillcolor="#f7d7c0"] ;
232 -> 236 ;
237 [label="squared_error = 0.0\nsamples = 3\nvalue = 6.0", fillcolor="#fbeee4"] ;
3 -> 237 ;
238 [label="Underdark <= 0.5\nsquared_error = 9.89\nsamples = 6\nvalue = 7.33", fillcolor="#fae6d8"] ;
2 -> 238 ;
239 [label="unaligned <= 0.5\nsquared_error = 0.75\nsamples = 4\nvalue = 9.5", fillcolor="#f7dac4"] ;
238 -> 239 ;
240 [label="squared_error = 0.0\nsamples = 1\nvalue = 8.0", fillcolor="#f9e2d2"] ;
239 -> 240 ;
241 [label="squared_error = 0.0\nsamples = 3\nvalue = 10.0", fillcolor="#f7d7c0"] ;
239 -> 241 ;
242 [label="squared_error = 0.0\nsamples = 2\nvalue = 3.0", fillcolor="#ffffff"] ;
238 -> 242 ;
243 [label="Challenge <= 4.5\nsquared_error = 2.25\nsamples = 2\nvalue = 18.5", fillcolor="#eda674"] ;
1 -> 243 ;
244 [label="squared_error = 0.0\nsamples = 1\nvalue = 20.0", fillcolor="#eb9e66"] ;
243 -> 244 ;
245 [label="squared_error = 0.0\nsamples = 1\nvalue = 17.0", fillcolor="#eeaf81"] ;
243 -> 245 ;
246 [label="unaligned <= 0.5\nsquared_error = 10.11\nsamples = 45\nvalue = 14.6", fillcolor="#f1bd97"] ;
0 -> 246 [labeldistance=2.5, labelangle=-45, headlabel="False"] ;
247 [label="celestial <= 0.5\nsquared_error = 7.1\nsamples = 39\nvalue = 15.36", fillcolor="#f0b890"] ;
246 -> 247 ;
248 [label="dragon <= 0.5\nsquared_error = 3.59\nsamples = 37\nvalue = 14.92", fillcolor="#f1bb94"] ;
247 -> 248 ;
249 [label="Desert <= 0.5\nsquared_error = 2.53\nsamples = 18\nvalue = 15.72", fillcolor="#f0b68c"] ;
248 -> 249 ;
250 [label="chaotic evil <= 0.5\nsquared_error = 1.45\nsamples = 14\nvalue = 15.21", fillcolor="#f1b991"] ;
249 -> 250 ;
251 [label="Challenge <= 12.5\nsquared_error = 1.33\nsamples = 12\nvalue = 15.0", fillcolor="#f1ba93"] ;
250 -> 251 ;
252 [label="plant <= 0.5\nsquared_error = 0.53\nsamples = 7\nvalue = 14.57", fillcolor="#f1bd97"] ;
251 -> 252 ;
253 [label="humanoid <= 0.5\nsquared_error = 0.22\nsamples = 6\nvalue = 14.33", fillcolor="#f2be99"] ;
252 -> 253 ;
254 [label="aberration <= 0.5\nsquared_error = 0.16\nsamples = 5\nvalue = 14.2", fillcolor="#f2bf9a"] ;
253 -> 254 ;
255 [label="squared_error = 0.0\nsamples = 4\nvalue = 14.0", fillcolor="#f2c09c"] ;
254 -> 255 ;
256 [label="squared_error = 0.0\nsamples = 1\nvalue = 15.0", fillcolor="#f1ba93"] ;
254 -> 256 ;
257 [label="squared_error = 0.0\nsamples = 1\nvalue = 15.0", fillcolor="#f1ba93"] ;
253 -> 257 ;
258 [label="squared_error = 0.0\nsamples = 1\nvalue = 16.0", fillcolor="#f0b58a"] ;
252 -> 258 ;
259 [label="undead <= 0.5\nsquared_error = 1.84\nsamples = 5\nvalue = 15.6", fillcolor="#f0b78e"] ;
251 -> 259 ;
260 [label="Challenge <= 17.0\nsquared_error = 1.56\nsamples = 3\nvalue = 16.33", fillcolor="#efb387"] ;
259 -> 260 ;
261 [label="NA <= 0.5\nsquared_error = 0.25\nsamples = 2\nvalue = 15.5", fillcolor="#f0b78e"] ;
260 -> 261 ;
262 [label="squared_error = 0.0\nsamples = 1\nvalue = 16.0", fillcolor="#f0b58a"] ;
261 -> 262 ;
263 [label="squared_error = 0.0\nsamples = 1\nvalue = 15.0", fillcolor="#f1ba93"] ;
261 -> 263 ;
264 [label="squared_error = 0.0\nsamples = 1\nvalue = 18.0", fillcolor="#eda978"] ;
260 -> 264 ;
265 [label="lawful evil <= 0.5\nsquared_error = 0.25\nsamples = 2\nvalue = 14.5", fillcolor="#f1bd98"] ;
259 -> 265 ;
266 [label="squared_error = 0.0\nsamples = 1\nvalue = 14.0", fillcolor="#f2c09c"] ;
265 -> 266 ;
267 [label="squared_error = 0.0\nsamples = 1\nvalue = 15.0", fillcolor="#f1ba93"] ;
265 -> 267 ;
268 [label="size_ordinal <= 4.5\nsquared_error = 0.25\nsamples = 2\nvalue = 16.5", fillcolor="#efb286"] ;
250 -> 268 ;
269 [label="squared_error = 0.0\nsamples = 1\nvalue = 17.0", fillcolor="#eeaf81"] ;
268 -> 269 ;
270 [label="squared_error = 0.0\nsamples = 1\nvalue = 16.0", fillcolor="#f0b58a"] ;
268 -> 270 ;
271 [label="elemental <= 0.5\nsquared_error = 2.25\nsamples = 4\nvalue = 17.5", fillcolor="#eeac7c"] ;
249 -> 271 ;
272 [label="Forest <= 0.5\nsquared_error = 0.22\nsamples = 3\nvalue = 18.33", fillcolor="#eda775"] ;
271 -> 272 ;
273 [label="squared_error = 0.0\nsamples = 2\nvalue = 18.0", fillcolor="#eda978"] ;
272 -> 273 ;
274 [label="squared_error = 0.0\nsamples = 1\nvalue = 19.0", fillcolor="#eca36f"] ;
272 -> 274 ;
275 [label="squared_error = 0.0\nsamples = 1\nvalue = 15.0", fillcolor="#f1ba93"] ;
271 -> 275 ;
276 [label="Challenge <= 20.5\nsquared_error = 3.4\nsamples = 19\nvalue = 14.16", fillcolor="#f2bf9b"] ;
248 -> 276 ;
277 [label="Challenge <= 13.5\nsquared_error = 1.49\nsamples = 14\nvalue = 13.29", fillcolor="#f3c4a2"] ;
276 -> 277 ;
278 [label="chaotic evil <= 0.5\nsquared_error = 0.64\nsamples = 5\nvalue = 12.4", fillcolor="#f4c9aa"] ;
277 -> 278 ;
279 [label="squared_error = 0.0\nsamples = 3\nvalue = 13.0", fillcolor="#f3c6a5"] ;
278 -> 279 ;
280 [label="Challenge <= 11.5\nsquared_error = 0.25\nsamples = 2\nvalue = 11.5", fillcolor="#f5ceb2"] ;
278 -> 280 ;
281 [label="squared_error = 0.0\nsamples = 1\nvalue = 11.0", fillcolor="#f6d1b7"] ;
280 -> 281 ;
282 [label="squared_error = 0.0\nsamples = 1\nvalue = 12.0", fillcolor="#f4cbae"] ;
280 -> 282 ;
283 [label="Challenge <= 16.5\nsquared_error = 1.28\nsamples = 9\nvalue = 13.78", fillcolor="#f2c19e"] ;
277 -> 283 ;
284 [label="Mountain <= 0.5\nsquared_error = 0.89\nsamples = 6\nvalue = 14.33", fillcolor="#f2be99"] ;
283 -> 284 ;
285 [label="chaotic evil <= 0.5\nsquared_error = 0.64\nsamples = 5\nvalue = 14.6", fillcolor="#f1bd97"] ;
284 -> 285 ;
286 [label="squared_error = 0.0\nsamples = 4\nvalue = 15.0", fillcolor="#f1ba93"] ;
285 -> 286 ;
287 [label="squared_error = 0.0\nsamples = 1\nvalue = 13.0", fillcolor="#f3c6a5"] ;
285 -> 287 ;
288 [label="squared_error = 0.0\nsamples = 1\nvalue = 13.0", fillcolor="#f3c6a5"] ;
284 -> 288 ;
289 [label="Coastal <= 0.5\nsquared_error = 0.22\nsamples = 3\nvalue = 12.67", fillcolor="#f4c8a8"] ;
283 -> 289 ;
290 [label="squared_error = 0.0\nsamples = 2\nvalue = 13.0", fillcolor="#f3c6a5"] ;
289 -> 290 ;
291 [label="squared_error = 0.0\nsamples = 1\nvalue = 12.0", fillcolor="#f4cbae"] ;
289 -> 291 ;
292 [label="chaotic evil <= 0.5\nsquared_error = 0.64\nsamples = 5\nvalue = 16.6", fillcolor="#efb185"] ;
276 -> 292 ;
293 [label="squared_error = 0.0\nsamples = 4\nvalue = 17.0", fillcolor="#eeaf81"] ;
292 -> 293 ;
294 [label="squared_error = 0.0\nsamples = 1\nvalue = 15.0", fillcolor="#f1ba93"] ;
292 -> 294 ;
295 [label="Challenge <= 18.5\nsquared_error = 2.25\nsamples = 2\nvalue = 23.5", fillcolor="#e78a47"] ;
247 -> 295 ;
296 [label="squared_error = 0.0\nsamples = 1\nvalue = 22.0", fillcolor="#e99254"] ;
295 -> 296 ;
297 [label="squared_error = 0.0\nsamples = 1\nvalue = 25.0", fillcolor="#e58139"] ;
295 -> 297 ;
298 [label="Challenge <= 15.5\nsquared_error = 1.56\nsamples = 6\nvalue = 9.67", fillcolor="#f7d9c3"] ;
246 -> 298 ;
299 [label="Arctic <= 0.5\nsquared_error = 1.0\nsamples = 4\nvalue = 9.0", fillcolor="#f8ddc9"] ;
298 -> 299 ;
300 [label="squared_error = 0.0\nsamples = 2\nvalue = 8.0", fillcolor="#f9e2d2"] ;
299 -> 300 ;
301 [label="squared_error = 0.0\nsamples = 2\nvalue = 10.0", fillcolor="#f7d7c0"] ;
299 -> 301 ;
302 [label="squared_error = 0.0\nsamples = 2\nvalue = 11.0", fillcolor="#f6d1b7"] ;
298 -> 302 ;
}